{"layers":[{"size":8,"rate":0.01,"outputs":[[0.9185130603809262],[0.9566651970625185],[0.2762433258023128],[0.9601196564913826],[0.28875653326840967],[0.620984736232938],[0.8217164295498285],[0.6807956849622265]],"derivative_outputs":[[1],[1],[1],[1],[1],[1],[1],[1]],"errors":[[0.03219387313041008],[0.016762725084096874],[0.011532763888005386],[0.002621120828662584],[0.0019051029619975802],[-0.008702692173383226],[-0.00999341792976411],[-0.035363664543153955]],"bias":[[-799.8176223693827],[-177.2263892887465],[-30.93949385124424],[339.2194917045308],[334.7055117118959],[716.9733227269284],[-143.92273215655842],[130.3115023751065]],"weights":[[21.05565681199842,18.02387060704142,18.637072697664102,6.066707867077549,14.769309485956558,2.1238848812680584,22.550192561013933,18.998563165570452],[9.386470237489684,16.57359125709504,15.321207122062175,15.880441654920206,-4.681126376423537,31.68869211628692,-17.702547437535813,15.047309663881816],[6.592717462787178,3.9048063575990803,7.04651155726212,9.749391487669406,-1.9425488238219886,15.194782831357692,-7.523810465085599,5.676729807609851],[-0.678070923338388,-18.379893182856936,-8.93946034253051,-9.349553563144468,8.38526212567034,-33.62534608842989,27.50782878378293,-16.055493370679873],[-0.271771365056337,-7.2303634743369845,-1.4028380961414721,5.507235224470324,-4.534601801133138,5.19383834851248,-7.448970981986027,-4.7284507939407145],[-0.954721505785456,6.4191164368635505,-6.331472194140107,-33.808594628350015,-6.101172086879233,-17.445706817057218,-16.596969491418058,-28.084297864001602],[-9.229002510391522,11.941885595498261,-3.385040128189622,-14.819459959848663,6.351587341818919,27.751916536345046,16.643494949316473,2.3616224735255513],[-9.360883665290206,-12.113404610688919,-6.926328336468029,24.801956723933163,-6.118647386399072,-21.515799521849946,-20.114616428829216,32.665089778914066]]},{"size":8,"rate":0.01,"outputs":[[0.5881926823390262],[0.08745954299155236],[0.3354396423983993],[0.5110706096186061],[0.34613707202478144],[0.51183121463919],[0.31234862196473917],[0.8863169603192441]],"derivative_outputs":[[0.2422220507818476],[0.07981037133126116],[0.2229198887060333],[0.24987744160267242],[0.22632619939489274],[0.24986002236016142],[0.21478696032146766],[0.10075920616969956]],"errors":[[0.0008343108520797499],[0.0001477373520984133],[0.00080279456602252],[0.0005223538715991557],[0.00005570736599960297],[0.00009394416904808332],[0.0003130928649550599],[-0.0007500139875574977]],"bias":[[-14.505455693724516],[-21.65182320398385],[-13.989160386228278],[0.2598589246413277],[-13.193358992153646],[-2.954632210642538],[-16.4236875116184],[-21.318514192410717]],"weights":[[10.614566721488591,6.463760349308947,-11.472700460043647,5.875233768081414,4.6844236091456715,-17.325231355675804],[5.749680259209165,-19.88036976937872,-6.500320716093453,-0.08415919686853648,-4.2328995802164116,-14.785027720943434],[6.862397837918036,-0.12668196976543825,-7.747557858267086,3.0513254002552648,-1.8631073218722833,-20.66722200760711],[-20.917980180284392,12.773031988936676,-7.508159467351196,-9.167380635354519,-21.364079685321833,-10.824007475582809],[5.276887696794087,-2.622496235433081,-9.559602819497224,-8.563557933979018,11.505060532968994,-1.2140172615847833],[4.233443031016595,24.063572853098574,21.422655656971507,-19.353128450012782,-4.384485704267912,-2.1430584972935285],[4.014510014365179,-8.410927614033373,-8.087603990637367,-31.640773138235204,30.520189428190335,-6.540655084188512],[5.002845913375932,8.44535135002354,-10.774380512819839,2.331448328846291,-3.709893727842113,38.92050199419946]]},{"size":6,"rate":0.01,"outputs":[[0.00011983855143329124],[0.02567741181104035],[5.661770823594189e-7],[0.00040472964474222006],[0.0000012590852992724906],[0.9227660848192328]],"derivative_outputs":[[0.00011982419015488161],[0.025018082333726595],[5.661767618029303e-7],[0.0004045658386568869],[0.0000012590837139766998],[0.07126883752661722]],"errors":[[6.391401352608304e-10],[6.96913684315382e-8],[9.761330107751497e-17],[3.841753790418161e-9],[1.9812983728999106e-8],[-0.00019392667837800397]],"bias":[[-17.068244152839974],[-28.451627375887497],[3.788170045658408],[13.08759768093554],[-12.409755437844543],[-4.507194979007304]]}]}