{"layers":[{"size":11,"rate":0.01,"outputs":[[0.2951892967427039],[0.24391785149688994],[0.8853222723855299],[0.638152520667158],[1.3911432503335368],[0.3049971372076347],[0.3476483114603576],[0.31135682319206354],[0.7092385754817939],[1.0238878446391482],[0.8287815112453785]],"derivative_outputs":[[1],[1],[1],[1],[1],[1],[1],[1],[1],[1],[1]],"errors":[[0.012830389077324224],[0.004239446754107683],[-0.011176272735592817],[-0.01163904090641997],[0.006373057433352963],[-0.0036592742109977368],[-0.0029114112534097047],[-0.025393551628702375],[-0.00006446929379179097],[-0.00157970276927538],[-0.009943558599875328]],"bias":[[144.8549286115129],[22.555653609601546],[-98.69616096792159],[-49.969408602394715],[43.12339739889434],[-18.510242159345463],[4.196859733273848],[-160.791458249305],[-18.167035005724756],[-48.41467422385429],[-170.21516883551797]],"weights":[[3.372910762821968,3.3929816404114375,1.4020527602796622,-0.9441830430140936,-3.945562988730319,-2.3093890726988207,-1.7934340605332852,-1.7872598806142894,-1.7521297465812289,-2.093892165497655,-1.7574038600672879,-2.3455158573591848,3.5719921009227775,-2.5203161387047928,2.619346577309927,2.7918975850269856,-3.5694344371802513,-3.758815761261377,-2.4945175723771293,3.04759665158428,-1.5925165613915517,3.818271764164614],[1.5335233200127292,0.1578049612953376,-0.5771029979080764,0.6436327229333031,-2.568704687513595,0.24132920115952167,-0.5485693092265137,-1.7147704502019718,-1.0525699522785128,0.27037214994964615,-3.6199092355284903,0.24599380841479893,-0.5717594889639978,-2.0143018857221366,0.6207443634792319,-0.6605141167564955,-2.3682049689869693,-2.4374653048590504,-0.3678485197654082,3.5435577734460972,-0.3291759645848909,0.2977277234830618],[-3.4117910490807217,-3.2785752515309805,-2.2215175493667947,0.1667314473064183,1.886370486422159,5.034299627405243,2.832765354214172,-0.43710992257505216,2.4573229348040355,5.226305046049198,3.2780194041078836,5.01492907367378,-4.250765629827757,3.6419554000230336,-2.022435869989256,-3.343238389654608,1.6604789411129925,1.7702457864874757,1.929079490173422,-1.2964058796291262,0.15226528981170623,-3.7709496225934345],[-4.278112050800273,-1.2788473695994236,-0.7624490462010763,-0.9534032091036952,5.156502718220895,2.0221714884341213,2.771316965682704,1.7219767011423532,3.0520390528483006,2.3446476013612205,7.307106251576033,2.0209386006057612,-0.9739769363763369,5.4097279846962385,-1.2221560434140333,-0.13896781191427557,4.7657886539990875,4.994279420097447,0.7274740144082473,-4.340200670692363,0.31345914828001337,-1.5575829167991864],[2.2659313751798207,4.65111367406939,-0.9819936188884659,4.506783092169232,3.399015860635426,-10.829580495949472,2.0024468237213964,0.7964958777167749,-0.23371034829293932,-11.313367549842141,-11.896751000579101,-10.309466907975393,4.655580406250421,-0.6981566656039918,4.150386903865279,4.521336602221845,3.3230023720732125,3.726551937537202,-1.5703494280608554,12.836625360475054,3.4544908557583502,6.950972745564569],[-1.545215693791294,-0.3624482372007145,0.1872269752686575,-1.0426896284732685,1.2221807792584536,1.652843007189256,1.177630658500435,0.5611291521670293,1.542579532919558,1.7557736824713808,4.491928070936177,1.6064714419164452,-0.06361129307612423,2.7747899446143696,-0.5416644171036392,0.0024778990610121307,1.0921666591482946,1.0961748306533772,0.37491707275505437,-3.1158564284590677,-0.42306476806448884,-0.5891954064471868],[-0.7931183525056497,-1.5389276398767695,0.9074594547933152,-1.1698482545879771,0.4191644945520063,1.7594404356217772,-2.03604821483635,1.1081864844323754,-0.9268625492917665,1.8166151935771564,2.979790008339271,1.6119954057876005,-1.0046043994232305,-1.578198130632685,-1.6666955155949508,-0.8664593899896716,0.3635374853329728,0.2751187672342688,0.6211138837318544,-4.85204446296692,-0.3921037742175681,-2.298913992605219],[-7.491281814789359,-4.04255979545528,-0.19591680028500777,0.4538358429986679,13.87315575782207,-2.1547879883679446,-0.7283595521973911,7.687607607566038,0.7980840440569908,-2.1327870882014235,6.65538572749561,-2.133612933021521,-2.343804991370149,2.1953044315755417,-4.25111846724837,-0.3435649827854912,12.959825770099645,13.638080175592664,1.797789972118948,-10.544209888554166,3.903245854158177,-4.815974952106246],[-0.694898090388835,-2.173026030461759,-2.3381539852503717,-1.7701916977051397,-6.480704487602544,10.134377896708203,4.2432587132392285,-5.491146360276956,3.3792441693565496,10.637803081461984,4.802442230023349,9.98860080474336,-4.275785053855318,4.83108407108193,-0.5535630179827165,-4.293628413809967,-6.213475072167498,-6.568872242086827,1.2697271419772909,1.308159280451299,-3.438399059640379,-2.805781552327869],[1.285013379963281,-2.7155639485559346,2.9522046345062165,0.4446288400795389,1.2443914039485764,-2.067249128128648,-8.437093262113718,4.37939405749672,-6.02825780390075,-2.74932087639566,-3.6172330758288878,-2.3196354834368926,-1.2083753834340591,-9.899950194097276,-3.2655315649945074,-1.3683990688279437,1.2027030601122954,1.1299004939249988,1.1771281086561627,-7.508991147965217,1.8322612004343033,-3.8188153117333345],[-2.0801924171110215,-5.526868664183986,-0.6815250265162116,-0.4992382896872076,-1.35477599230902,7.919478781272854,-0.4757707307063394,0.037861099253010816,0.3736536362926989,7.6295318486172805,3.1463442421302816,7.6799616680360145,-6.181830405123301,0.07586445032215039,-4.2554133874079865,-5.91414494027281,-1.4554695737538634,-1.6403294558618908,3.486067029282543,-6.5627574295413496,-0.32790475798609603,-6.947872952151001]]},{"size":22,"rate":0.01,"outputs":[[0.49549584056172163],[0.36653587868234205],[0.5344093180936891],[0.5666363887020581],[0.40787210838259225],[0.8409410465838183],[0.30967063459056465],[0.46042113628709647],[0.38014888352082593],[0.8226266025877457],[0.3132586967382159],[0.8318601392271279],[0.31240394387484566],[0.23787144056996662],[0.4396231948490755],[0.2940268939558341],[0.4107128808034498],[0.3956917257737967],[0.668823087960524],[0.7321390537699457],[0.4919901821230626],[0.37146816933420657]],"derivative_outputs":[[0.24997971254775458],[0.2321873283209055],[0.24881599882832733],[0.24555959170074823],[0.24151245158613116],[0.13375920275433065],[0.21377473266284164],[0.2484335135471954],[0.23563570987869542],[0.14591207530268882],[0.2151276856560904],[0.1398688479921513],[0.21480771972628795],[0.18128861833113544],[0.2463546413997673],[0.20757507958651877],[0.24202781034558105],[0.2391197839279512],[0.22149876497147317],[0.19611145971479427],[0.24993584281757833],[0.2334795685056998]],"errors":[[0.000333692230589321],[0.00030241999590407764],[0.00019010682375163074],[-0.00010497157129214992],[-0.0004026753507113639],[-0.0000667592012247223],[-0.0001371242016511896],[-0.00012437399940459125],[-0.00012255928918105644],[-0.00008544592942239842],[-0.00006108960206993218],[-0.00007486579176970681],[0.0003109207283513909],[-0.00010780665831154309],[0.0002162224982371516],[0.0001936057638821423],[-0.0003714471965089411],[-0.0003894831865781846],[-0.0001660399747448768],[0.00004257729211479629],[-0.0001477109445018565],[0.0003580427825350733]],"bias":[[5.191307753898683],[6.467582922406449],[2.572998967912903],[-3.621509507680522],[-8.66365056347409],[-0.4732935436713232],[-0.6016758096974847],[-4.603589871145527],[-0.4438870668940957],[0.14574877341946907],[2.813519813599506],[-0.6166394743580252],[6.695997354345208],[0.03161413694482098],[4.960540587085618],[4.9750329141734655],[-7.976795834026304],[-8.472666276970077],[-4.343575358808287],[3.4212136377024613],[-4.737764300732173],[7.0737036552453665]],"weights":[[-1.6299595534636713,-5.667605556541965,2.246606200986303,-1.6189223969158877,8.544891338519797,3.859931294692927],[-5.83745808169214,-4.209585232268267,3.735661302372324,-6.070884060193311,5.796866633596305,-2.150281939396077],[2.57446907292976,-3.8534708099065607,0.8124688656798753,0.36777046138951763,2.573911624809322,-2.7920964726112265],[-4.274273452224924,-2.243084188283503,0.34030599282330076,4.564250148908055,-2.1974302603844023,-0.4661169325576655],[-2.1747768055929075,0.6986549054337806,0.2327592293303969,7.406282948594934,-13.919279363114123,-12.023078957064337],[8.272594298714374,2.305668649872898,-9.49497058934999,-1.5655756980754543,1.6887795033183295,10.518301212540951],[-7.475818914125418,3.768615330095996,-4.232855881849398,-5.99315985173918,-2.784472687867498,0.4005645071494046],[1.6263291413506318,-2.3898050516994735,0.7234980790689868,7.031062079217786,-6.155331567243481,-8.071720791367058],[-3.9292514501510345,3.1271761020786535,-4.293729809288555,-4.749962724698319,-3.0941085921045004,-1.384319805733241],[8.536129368318978,2.410019023281281,-9.471935675480006,-2.8991645655809637,1.351523563299364,10.834266407256404],[7.232780424436155,3.4183644416963297,-5.986358416650173,-8.914317452787627,-5.819688459499917,-9.421288755925575],[7.785846851080786,2.385395633359609,-9.418314579919116,-1.6520604383371462,1.382205154952188,10.18984716525324],[-4.727151080404899,-4.620389683740084,4.5945716740761195,-5.474711751257311,4.9536396542504635,-5.54129261014472],[-7.620514320988149,5.192231707027846,-4.774013806585728,-8.403122694482873,-4.479862006800397,-4.0571965572736755],[-5.65937605102337,-3.41909757522321,2.497126641283858,-5.2704710580942615,4.758605837592759,0.22725943818222288],[-4.269843860007173,-3.9051508938024098,4.319670889266979,-4.668787535808902,2.2133692432029015,-5.984731307749353],[-2.201015705050649,0.20625204710242112,0.5598356880999819,6.946063961214789,-12.908447002192817,-11.36756442940245],[-2.6321402020214726,0.3068400708248871,0.7537499289866526,7.291135259527574,-13.649121237182623,-11.8546670135066],[2.1123047457825628,0.9008452555277736,-5.227732344548327,4.360041482964412,-3.8370882882847757,-0.013298126965006303],[-14.207449023198691,-2.9155045059980096,2.6110715417360377,-4.798859032358936,6.236040546036014,10.4143186538086],[-2.446835634317866,-2.099281011168918,0.5886450091600756,5.981855794180169,-4.577380611698529,-3.8010793456479672],[-8.570738972275839,-4.459867673965947,4.523229779306874,-6.704859750196623,6.938608427702144,-2.4202338500853977]]},{"size":6,"rate":0.01,"outputs":[[0.003525027950566149],[0.000050765196288662156],[6.604608352517359e-11],[0.0004026658792843239],[0.0015577958377922198],[0.963833922057604]],"derivative_outputs":[[0.0035126021285138763],[0.00005076261918350793],[6.60460835208115e-11],[0.0004025037394739841],[0.001555369109919977],[0.03485809274866055]],"errors":[[0.000007719902392672005],[1.334035659187163e-9],[6.307225701085636e-21],[5.0833973214801525e-9],[0.00019653406050452592],[-0.00008576336319651487]],"bias":[[1.929850159662723],[-3.8486311568135783],[-2.1294750855194184],[-0.4946160670905452],[0.8921642701251106],[-1.47709257234789]]}]}